FANN_FLO_2.1
num_layers=3
learning_rate=0.700000
connection_rate=1.000000
network_type=0
learning_momentum=0.000000
training_algorithm=2
train_error_function=1
train_stop_function=1
cascade_output_change_fraction=0.010000
quickprop_decay=-0.000100
quickprop_mu=1.750000
rprop_increase_factor=1.200000
rprop_decrease_factor=0.500000
rprop_delta_min=0.000000
rprop_delta_max=50.000000
rprop_delta_zero=0.100000
cascade_output_stagnation_epochs=12
cascade_candidate_change_fraction=0.010000
cascade_candidate_stagnation_epochs=12
cascade_max_out_epochs=150
cascade_min_out_epochs=50
cascade_max_cand_epochs=150
cascade_min_cand_epochs=50
cascade_num_candidate_groups=2
bit_fail_limit=1.00000000000000005551e-01
cascade_candidate_limit=1.00000000000000000000e+03
cascade_weight_multiplier=4.00000000000000022204e-01
cascade_activation_functions_count=10
cascade_activation_functions=3 5 7 8 10 11 14 15 16 17 
cascade_activation_steepnesses_count=4
cascade_activation_steepnesses=2.50000000000000000000e-01 5.00000000000000000000e-01 7.50000000000000000000e-01 1.00000000000000000000e+00 
layer_sizes=6 4 2 
scale_included=0
neurons (num_inputs, activation_function, activation_steepness)=(0, 0, 0.00000000000000000000e+00) (0, 0, 0.00000000000000000000e+00) (0, 0, 0.00000000000000000000e+00) (0, 0, 0.00000000000000000000e+00) (0, 0, 0.00000000000000000000e+00) (0, 0, 0.00000000000000000000e+00) (6, 6, 5.00000000000000000000e-01) (6, 6, 5.00000000000000000000e-01) (6, 6, 5.00000000000000000000e-01) (0, 6, 0.00000000000000000000e+00) (4, 4, 5.00000000000000000000e-01) (0, 4, 0.00000000000000000000e+00) 
connections (connected_to_neuron, weight)=(0, 3.19690169760219600192e+00) (1, -3.08755362400047328464e+00) (2, -2.86624576374091555309e-02) (3, 2.86081232914082272956e-01) (4, -3.14742056646577861301e+00) (5, 6.25519512554758905232e-01) (0, -3.19040321924917247287e+00) (1, 3.10974226513139750949e+00) (2, 1.63260376228913206553e-01) (3, -3.31172668438308837047e-01) (4, 3.21046689518920924655e+00) (5, -5.53748581337089040844e-01) (0, 1.65890457842269967159e+00) (1, -3.06539988883964564792e+00) (2, 1.24152858235021645861e-01) (3, 2.72842691132179959723e-01) (4, -3.13203163811199214450e+00) (5, 7.17728412112349278829e-01) (6, -3.15997361385457065097e+00) (7, 3.12506674596302058688e+00) (8, -3.20330998667709376804e+00) (9, -4.04253511671176180009e-01) 
