FANN_FLO_2.1
num_layers=3
learning_rate=0.700000
connection_rate=1.000000
network_type=0
learning_momentum=0.000000
training_algorithm=2
train_error_function=1
train_stop_function=1
cascade_output_change_fraction=0.010000
quickprop_decay=-0.000100
quickprop_mu=1.750000
rprop_increase_factor=1.200000
rprop_decrease_factor=0.500000
rprop_delta_min=0.000000
rprop_delta_max=50.000000
rprop_delta_zero=0.100000
cascade_output_stagnation_epochs=12
cascade_candidate_change_fraction=0.010000
cascade_candidate_stagnation_epochs=12
cascade_max_out_epochs=150
cascade_min_out_epochs=50
cascade_max_cand_epochs=150
cascade_min_cand_epochs=50
cascade_num_candidate_groups=2
bit_fail_limit=1.00000000000000005551e-01
cascade_candidate_limit=1.00000000000000000000e+03
cascade_weight_multiplier=4.00000000000000022204e-01
cascade_activation_functions_count=10
cascade_activation_functions=3 5 7 8 10 11 14 15 16 17 
cascade_activation_steepnesses_count=4
cascade_activation_steepnesses=2.50000000000000000000e-01 5.00000000000000000000e-01 7.50000000000000000000e-01 1.00000000000000000000e+00 
layer_sizes=15 11 2 
scale_included=0
neurons (num_inputs, activation_function, activation_steepness)=(0, 0, 0.00000000000000000000e+00) (0, 0, 0.00000000000000000000e+00) (0, 0, 0.00000000000000000000e+00) (0, 0, 0.00000000000000000000e+00) (0, 0, 0.00000000000000000000e+00) (0, 0, 0.00000000000000000000e+00) (0, 0, 0.00000000000000000000e+00) (0, 0, 0.00000000000000000000e+00) (0, 0, 0.00000000000000000000e+00) (0, 0, 0.00000000000000000000e+00) (0, 0, 0.00000000000000000000e+00) (0, 0, 0.00000000000000000000e+00) (0, 0, 0.00000000000000000000e+00) (0, 0, 0.00000000000000000000e+00) (0, 0, 0.00000000000000000000e+00) (15, 6, 5.00000000000000000000e-01) (15, 6, 5.00000000000000000000e-01) (15, 6, 5.00000000000000000000e-01) (15, 6, 5.00000000000000000000e-01) (15, 6, 5.00000000000000000000e-01) (15, 6, 5.00000000000000000000e-01) (15, 6, 5.00000000000000000000e-01) (15, 6, 5.00000000000000000000e-01) (15, 6, 5.00000000000000000000e-01) (15, 6, 5.00000000000000000000e-01) (0, 6, 0.00000000000000000000e+00) (11, 6, 5.00000000000000000000e-01) (0, 6, 0.00000000000000000000e+00) 
connections (connected_to_neuron, weight)=(0, -1.33284016062239385469e-01) (1, -3.07329001370664489645e-02) (2, 1.20856851106524831874e-01) (3, 1.55968919163585073573e-01) (4, 1.15757345920443899256e-01) (5, 9.28574246138024195218e-01) (6, 1.03003927019207486282e+00) (7, 7.99240190257789362427e-01) (8, 2.35080664924694510143e-01) (9, 8.07139755470727027209e-01) (10, 8.34613965954847381035e-01) (11, 9.33918705689986694551e-01) (12, 1.00906829397686359506e+00) (13, 7.91696129057608666280e-01) (14, -5.59468293695156507206e-02) (0, 4.83342007126211825607e+00) (1, 3.29930123724028856458e-01) (2, 3.82458139993235857190e-01) (3, 2.67109331525847593092e-01) (4, 2.85435122288748899244e-01) (5, -2.19398370810861464975e+00) (6, -2.14367376693601485727e+00) (7, -2.41833162404308144033e+00) (8, -1.55273706984014714383e-01) (9, -2.27490518295283195016e+00) (10, -2.20629550841046251364e+00) (11, -1.24269748977563576631e+00) (12, -1.29478744915864707465e+00) (13, -2.25249053001925991779e+00) (14, 4.33701652371155266241e-01) (0, -1.45763808029331176641e+00) (1, -1.97730423001624439072e-01) (2, -2.79550121216155356141e-01) (3, -3.67717706648684916626e-01) (4, -1.98336438326217029404e-01) (5, 1.42093625616851815252e+00) (6, 1.33110517853437038127e+00) (7, 1.44504423732151487947e+00) (8, 1.32358583516726024953e-01) (9, 1.31321475968807765966e+00) (10, 1.42514297905594222726e+00) (11, 7.55555414465133412527e-01) (12, 7.81561613884632078175e-01) (13, 1.33942314827380748454e+00) (14, -1.35739489155346365612e-01) (0, 9.62604071252728288322e-01) (1, 3.54803402913391408013e-01) (2, 4.59504907024681275018e-01) (3, 4.52030410064041321405e-01) (4, 3.72403089893638794550e-01) (5, 6.31807215123702370363e+00) (6, 6.39313771932650887209e+00) (7, 6.76952244826452620430e+00) (8, -6.32621027485422843251e-02) (9, 6.83932579811595875441e+00) (10, 5.36860048332217676403e+00) (11, 4.66127242420366905140e-01) (12, 4.39854632590464200703e-01) (13, 6.48326656632209719078e+00) (14, -3.34275833917863418598e-01) (0, -1.29480450780647604603e+00) (1, -1.88295556432303251571e-01) (2, -1.57007118887003721541e-01) (3, -1.39734102613028404738e-01) (4, -1.78609376973208305861e-01) (5, 1.33361675159185955053e+00) (6, 1.35847058262371200854e+00) (7, 1.47248331004967192293e+00) (8, 1.42189013666758068410e-01) (9, 1.41533466742485591894e+00) (10, 1.41467554864577227391e+00) (11, 7.86813997533981290822e-01) (12, 7.36228414681617482351e-01) (13, 1.35264587716311046606e+00) (14, -3.72123644534381181614e-02) (0, 1.09191384842314787029e+00) (1, 4.37066127551376526483e-01) (2, 3.09519511652767476129e-01) (3, 4.30239339364349548944e-01) (4, 4.11439274442970459589e-01) (5, 6.42690709590245567995e+00) (6, 6.47065422295857750612e+00) (7, 5.17010604956488251105e+00) (8, 1.21443035457939718658e-01) (9, 6.85517944153331715285e+00) (10, 5.45408157565597040417e+00) (11, 2.58900813393936557461e-01) (12, 5.73852928915599913573e-01) (13, 6.58076336644674242393e+00) (14, -3.40100384904153396626e-01) (0, -1.17887084774145867172e+00) (1, -7.15681078203355830469e-02) (2, -2.28577903128448722825e-01) (3, -2.35267637885395286546e-01) (4, -1.34407474315944963639e-01) (5, 1.29848689506764158885e+00) (6, 1.27952791865610260302e+00) (7, 1.45904869878878096223e+00) (8, -8.05281951343108162722e-03) (9, 1.34622244105785915380e+00) (10, 1.35571687091148995741e+00) (11, 6.91745628696541769997e-01) (12, 9.02837574104612294867e-01) (13, 1.39599798188656398779e+00) (14, 9.51533395218688710093e-02) (0, -1.14238808011713419144e-02) (1, -3.04463176944201274754e-01) (2, -3.09732346751635356785e-01) (3, -4.18501912572329437534e-01) (4, -3.51881115653460418979e-01) (5, 1.03815485912786686917e+00) (6, 1.05639522221653470169e+00) (7, 1.02022835952484047795e+00) (8, 2.70237104914499592923e-01) (9, 1.11234069991337003458e+00) (10, 7.84269041758313689705e-01) (11, 1.38425056694763126686e+00) (12, 1.33646398096101703956e+00) (13, 9.93311307882708161010e-01) (14, -1.32856565537019521983e-01) (0, 1.08153313329138822674e+00) (1, 3.61053344798862640985e-01) (2, 4.72098280680954163202e-01) (3, 4.60999791515648071893e-01) (4, 3.77352413726627533563e-01) (5, 6.41189927219678246217e+00) (6, 6.40491571634341561037e+00) (7, 5.96308149748946902946e+00) (8, 7.29636276066730760093e-02) (9, 6.83008152004264790236e+00) (10, 5.39404516973498804333e+00) (11, 6.71438418564323069582e-01) (12, 2.49989633071210359816e-01) (13, 6.59803533218885362999e+00) (14, -3.98168436838395645161e-01) (0, -1.10779958061346794906e+00) (1, -1.39270082385305277173e-01) (2, -2.75011211902860486234e-01) (3, -1.89119249851468856916e-01) (4, -1.21238068015340663686e-01) (5, 1.32770677969902584081e+00) (6, 1.31914160515808243090e+00) (7, 1.45449817473282316804e+00) (8, 9.39354476400703908290e-02) (9, 1.27673376293033191686e+00) (10, 1.30526275355375909193e+00) (11, 8.45761568155948384451e-01) (12, 7.82743909266654935841e-01) (13, 1.30220068560093471532e+00) (14, 4.73365972360347692094e-02) (15, 1.73822496062646048021e-01) (16, -5.71634373102358983587e-01) (17, 3.69048566166174207837e-01) (18, 5.36335666262623300682e-01) (19, 2.61244365257907673605e-01) (20, 5.60545739316460234214e-01) (21, 3.93677234418394084159e-01) (22, 1.00212134519039056113e-01) (23, 5.75495016359802824546e-01) (24, 4.16633486516477580253e-01) (25, 3.97679923808892499260e-01) 
