FANN_FLO_2.1
num_layers=3
learning_rate=0.700000
connection_rate=1.000000
network_type=0
learning_momentum=0.000000
training_algorithm=2
train_error_function=1
train_stop_function=1
cascade_output_change_fraction=0.010000
quickprop_decay=-0.000100
quickprop_mu=1.750000
rprop_increase_factor=1.200000
rprop_decrease_factor=0.500000
rprop_delta_min=0.000000
rprop_delta_max=50.000000
rprop_delta_zero=0.100000
cascade_output_stagnation_epochs=12
cascade_candidate_change_fraction=0.010000
cascade_candidate_stagnation_epochs=12
cascade_max_out_epochs=150
cascade_min_out_epochs=50
cascade_max_cand_epochs=150
cascade_min_cand_epochs=50
cascade_num_candidate_groups=2
bit_fail_limit=1.00000000000000005551e-01
cascade_candidate_limit=1.00000000000000000000e+03
cascade_weight_multiplier=4.00000000000000022204e-01
cascade_activation_functions_count=10
cascade_activation_functions=3 5 7 8 10 11 14 15 16 17 
cascade_activation_steepnesses_count=4
cascade_activation_steepnesses=2.50000000000000000000e-01 5.00000000000000000000e-01 7.50000000000000000000e-01 1.00000000000000000000e+00 
layer_sizes=14 11 2 
scale_included=0
neurons (num_inputs, activation_function, activation_steepness)=(0, 0, 0.00000000000000000000e+00) (0, 0, 0.00000000000000000000e+00) (0, 0, 0.00000000000000000000e+00) (0, 0, 0.00000000000000000000e+00) (0, 0, 0.00000000000000000000e+00) (0, 0, 0.00000000000000000000e+00) (0, 0, 0.00000000000000000000e+00) (0, 0, 0.00000000000000000000e+00) (0, 0, 0.00000000000000000000e+00) (0, 0, 0.00000000000000000000e+00) (0, 0, 0.00000000000000000000e+00) (0, 0, 0.00000000000000000000e+00) (0, 0, 0.00000000000000000000e+00) (0, 0, 0.00000000000000000000e+00) (14, 6, 5.00000000000000000000e-01) (14, 6, 5.00000000000000000000e-01) (14, 6, 5.00000000000000000000e-01) (14, 6, 5.00000000000000000000e-01) (14, 6, 5.00000000000000000000e-01) (14, 6, 5.00000000000000000000e-01) (14, 6, 5.00000000000000000000e-01) (14, 6, 5.00000000000000000000e-01) (14, 6, 5.00000000000000000000e-01) (14, 6, 5.00000000000000000000e-01) (0, 6, 0.00000000000000000000e+00) (11, 6, 5.00000000000000000000e-01) (0, 6, 0.00000000000000000000e+00) 
connections (connected_to_neuron, weight)=(0, -4.22773582416021742603e+00) (1, 3.62895361390751569619e-01) (2, 5.29574594703358325631e-01) (3, 4.57420743313473432412e-01) (4, 4.21027719286125867715e-01) (5, 1.95113787885567058211e+00) (6, 2.93290846903951019087e+00) (7, 2.47977201140133196589e+00) (8, 3.70102526683509935879e+00) (9, 9.98438369876912257261e-01) (10, -3.58050045595941224263e+00) (11, 3.02383217814392279976e+00) (12, -1.30443636278656460714e-01) (13, -2.01867540664547373552e-01) (0, -4.28396577315771498462e+00) (1, 3.57618763354462354531e-01) (2, 5.42591802087467822702e-01) (3, 4.18204046097439496865e-01) (4, 5.29271758404415759713e-01) (5, 1.99595577355285991317e+00) (6, 2.79692033042342513838e+00) (7, 2.59303662465070861032e+00) (8, 3.48065061204511394521e+00) (9, 9.64375075346997401304e-01) (10, -3.22506902278321483379e+00) (11, 3.09011725935167458346e+00) (12, -1.70059222678688504171e-01) (13, -2.83055343962782424150e-01) (0, 1.21548071726023065864e+00) (1, -5.83685572295540647247e-02) (2, -4.16392843275421656313e-02) (3, -4.18796624093407190981e-02) (4, -5.00874306111687359055e-02) (5, 3.98160000910292244392e-01) (6, 2.39381705815122275416e-01) (7, 2.07320632625327488929e-01) (8, 2.00424747753844639808e-01) (9, -6.98807418540385583139e-04) (10, 1.59760112194086728588e-01) (11, 2.37467036813737847334e-01) (12, 1.10715864385246276491e-01) (13, 6.12361454571478704134e-03) (0, 3.17937169009269071651e+00) (1, 1.37149271944196737838e-01) (2, 1.74701002815397299361e-01) (3, 2.70876227110940191734e-02) (4, 1.40153807976873434615e-01) (5, 4.13396344639728186010e-01) (6, 4.14081426467884372578e-01) (7, 3.08681149859970360705e-01) (8, 1.86160069788286031134e-01) (9, 2.84217108727105483013e-01) (10, 5.47926093550229786899e+00) (11, 7.96587955251184087757e-01) (12, 3.68666100038455735177e-01) (13, -4.52316393753372902875e-01) (0, -8.02764436875087739054e+00) (1, -5.93268214547177027973e-02) (2, -5.35019947969456247105e-02) (3, 2.57844240582446281029e-02) (4, -4.84269349658032061123e-02) (5, 4.26681978978372566935e-01) (6, 2.10754081280181970737e-01) (7, 3.28334949583957869113e-01) (8, 3.34297559828708845675e-01) (9, 4.63477759572177350211e-01) (10, 7.02293695942835194401e-01) (11, 5.18248920295341308773e-01) (12, -1.81114494171364048825e-01) (13, -1.06030786044153779724e-01) (0, 9.78013581948326993221e-01) (1, 5.49624287232257369151e-03) (2, -2.44569873000731324852e-02) (3, 7.22117739234814648430e-02) (4, -4.45776490058054850052e-02) (5, -1.93674842535497521157e-01) (6, -3.96729170824962451558e-01) (7, -2.23019433846116249542e-02) (8, -4.05566908896882849511e-01) (9, -1.32270600913672292664e-01) (10, -4.99783926445371895486e-01) (11, -4.83642887467297721837e-01) (12, 9.50333117602596977314e-02) (13, 3.57673534557098937725e-01) (0, 1.03804662765746003039e+00) (1, -3.19967252697100426606e-02) (2, 3.66562622104535176804e-02) (3, -1.07470472838034469126e-02) (4, 8.15213637863049650489e-02) (5, -2.00696530460359429116e-01) (6, -5.20923140938954976065e-01) (7, -1.24715627514326604652e-01) (8, -2.41071947396715113854e-01) (9, -1.33900750695376241639e-01) (10, -5.86186797160036410226e-01) (11, -6.30900384765252564279e-01) (12, -5.96671388389338336333e-02) (13, 3.61465470299000335430e-01) (0, 1.09175818355564913098e+00) (1, 1.68013420412177179666e-03) (2, -2.83371746866977677892e-02) (3, 1.13893015650006451667e-01) (4, 6.98878600866519733570e-02) (5, -1.09324931241065820275e-01) (6, -9.77942775965282784512e-01) (7, -2.76331917828551987260e-02) (8, -3.11733700812776404199e-01) (9, -1.27537321566252553895e-01) (10, -4.79979083675272366616e-01) (11, -8.00638101433501447879e-01) (12, 6.87249093411694544908e-02) (13, 3.37132354631895614361e-01) (0, 1.78475414456968461963e+00) (1, 1.35966119745405233932e-01) (2, 4.19845519751626053417e-02) (3, 7.07949524909573524312e-02) (4, 1.66680870035322226119e-01) (5, 4.54177042992903734486e-01) (6, 5.94676473546145945015e-01) (7, 4.91731339702495551247e-01) (8, 3.85252647398991621142e-01) (9, 3.86034686663915549421e-01) (10, 5.53260363550687550571e+00) (11, 7.42887731686082464222e-01) (12, 6.91510082660268254884e-01) (13, -6.25031831699442985695e-01) (0, 2.46252543425700243240e-01) (1, 8.27902307898121248009e-02) (2, 3.32574932068902193172e-02) (3, 1.84494388678701437545e-01) (4, 1.43841666558416403365e-01) (5, 5.50538446342826656710e-02) (6, 6.97804934036249546736e-01) (7, 2.80338959093123951671e-01) (8, 4.71467452803343178847e-01) (9, 2.86038603537418667511e-01) (10, 4.03907454008819133406e+00) (11, 8.71360227757216998512e-01) (12, 1.48363368319211458290e-01) (13, -4.67112348625426887505e-01) (14, -1.64717133023059819630e-01) (15, -1.79388264991558049610e-01) (16, 8.99886602382330008654e-02) (17, 6.27939200140279818463e-01) (18, 1.00509664788016905845e+00) (19, -3.62663285016858849552e-01) (20, -4.46030621765186485739e-01) (21, -4.09851768402387905965e-01) (22, 6.78372965112888359762e-01) (23, 6.47047227360052157330e-01) (24, 4.10892956333041903250e-01) 
