FANN_FLO_2.1
num_layers=3
learning_rate=0.700000
connection_rate=1.000000
network_type=0
learning_momentum=0.000000
training_algorithm=2
train_error_function=1
train_stop_function=1
cascade_output_change_fraction=0.010000
quickprop_decay=-0.000100
quickprop_mu=1.750000
rprop_increase_factor=1.200000
rprop_decrease_factor=0.500000
rprop_delta_min=0.000000
rprop_delta_max=50.000000
rprop_delta_zero=0.100000
cascade_output_stagnation_epochs=12
cascade_candidate_change_fraction=0.010000
cascade_candidate_stagnation_epochs=12
cascade_max_out_epochs=150
cascade_min_out_epochs=50
cascade_max_cand_epochs=150
cascade_min_cand_epochs=50
cascade_num_candidate_groups=2
bit_fail_limit=1.00000000000000005551e-01
cascade_candidate_limit=1.00000000000000000000e+03
cascade_weight_multiplier=4.00000000000000022204e-01
cascade_activation_functions_count=10
cascade_activation_functions=3 5 7 8 10 11 14 15 16 17 
cascade_activation_steepnesses_count=4
cascade_activation_steepnesses=2.50000000000000000000e-01 5.00000000000000000000e-01 7.50000000000000000000e-01 1.00000000000000000000e+00 
layer_sizes=9 4 2 
scale_included=0
neurons (num_inputs, activation_function, activation_steepness)=(0, 0, 0.00000000000000000000e+00) (0, 0, 0.00000000000000000000e+00) (0, 0, 0.00000000000000000000e+00) (0, 0, 0.00000000000000000000e+00) (0, 0, 0.00000000000000000000e+00) (0, 0, 0.00000000000000000000e+00) (0, 0, 0.00000000000000000000e+00) (0, 0, 0.00000000000000000000e+00) (0, 0, 0.00000000000000000000e+00) (9, 6, 5.00000000000000000000e-01) (9, 6, 5.00000000000000000000e-01) (9, 6, 5.00000000000000000000e-01) (0, 6, 0.00000000000000000000e+00) (4, 4, 5.00000000000000000000e-01) (0, 4, 0.00000000000000000000e+00) 
connections (connected_to_neuron, weight)=(0, 1.16212055791424639928e+00) (1, -3.92906204133877423601e+00) (2, -3.19605829032907056558e-03) (3, 4.59203706208477169248e-01) (4, 3.84301947127246457114e+00) (5, 1.16644592263334896387e+01) (6, 2.62140252523203542978e+00) (7, 1.30919894252439590332e+01) (8, 1.15076348922875415504e+00) (0, -1.96741084512901887038e+00) (1, 4.71944300267705685314e+00) (2, 5.29928817937568075180e-01) (3, -4.44262998298773692518e-01) (4, -2.76239574811243793206e+00) (5, 2.24651458748587096181e+01) (6, 2.66557451200138473268e+00) (7, 2.24899277874239409414e+01) (8, -1.03814702645732559461e+00) (0, -5.24952473231052318958e-01) (1, 8.63445466437005482163e-01) (2, 2.37313370954712665739e-01) (3, -8.52337851108515343057e-01) (4, -2.41567003733213936378e-01) (5, 3.80628544703296256557e+00) (6, 5.99604500340812252013e-01) (7, 3.82917680829933715358e+00) (8, -1.85285069661003387598e-01) (9, -7.63006979863410883524e+00) (10, 2.24850868471868956533e+01) (11, 1.38401516073390640216e+00) (12, -6.57328560447505427788e-01) 
