FANN_FLO_2.1
num_layers=3
learning_rate=0.700000
connection_rate=1.000000
network_type=0
learning_momentum=0.000000
training_algorithm=2
train_error_function=1
train_stop_function=1
cascade_output_change_fraction=0.010000
quickprop_decay=-0.000100
quickprop_mu=1.750000
rprop_increase_factor=1.200000
rprop_decrease_factor=0.500000
rprop_delta_min=0.000000
rprop_delta_max=50.000000
rprop_delta_zero=0.100000
cascade_output_stagnation_epochs=12
cascade_candidate_change_fraction=0.010000
cascade_candidate_stagnation_epochs=12
cascade_max_out_epochs=150
cascade_min_out_epochs=50
cascade_max_cand_epochs=150
cascade_min_cand_epochs=50
cascade_num_candidate_groups=2
bit_fail_limit=1.00000000000000005551e-01
cascade_candidate_limit=1.00000000000000000000e+03
cascade_weight_multiplier=4.00000000000000022204e-01
cascade_activation_functions_count=10
cascade_activation_functions=3 5 7 8 10 11 14 15 16 17 
cascade_activation_steepnesses_count=4
cascade_activation_steepnesses=2.50000000000000000000e-01 5.00000000000000000000e-01 7.50000000000000000000e-01 1.00000000000000000000e+00 
layer_sizes=9 11 2 
scale_included=0
neurons (num_inputs, activation_function, activation_steepness)=(0, 0, 0.00000000000000000000e+00) (0, 0, 0.00000000000000000000e+00) (0, 0, 0.00000000000000000000e+00) (0, 0, 0.00000000000000000000e+00) (0, 0, 0.00000000000000000000e+00) (0, 0, 0.00000000000000000000e+00) (0, 0, 0.00000000000000000000e+00) (0, 0, 0.00000000000000000000e+00) (0, 0, 0.00000000000000000000e+00) (9, 6, 5.00000000000000000000e-01) (9, 6, 5.00000000000000000000e-01) (9, 6, 5.00000000000000000000e-01) (9, 6, 5.00000000000000000000e-01) (9, 6, 5.00000000000000000000e-01) (9, 6, 5.00000000000000000000e-01) (9, 6, 5.00000000000000000000e-01) (9, 6, 5.00000000000000000000e-01) (9, 6, 5.00000000000000000000e-01) (9, 6, 5.00000000000000000000e-01) (0, 6, 0.00000000000000000000e+00) (11, 6, 5.00000000000000000000e-01) (0, 6, 0.00000000000000000000e+00) 
connections (connected_to_neuron, weight)=(0, 4.91382394056290650042e+00) (1, 5.72369103004565227266e-01) (2, 4.60937601198783020173e-01) (3, 4.01734006275763610994e-01) (4, 5.22879083325495819246e-01) (5, -1.54706317492778477884e+00) (6, -1.44988595408480280824e+00) (7, -2.14523181968360709959e+00) (8, 1.68657078159077045143e-01) (0, 2.00712950306955395519e+00) (1, 3.71364820018814045799e-01) (2, 2.93410862997577570610e-01) (3, 2.90026094034717518699e-01) (4, 3.65147146597907978904e-01) (5, 8.14256181015236335519e-01) (6, 1.16981006094518086291e-01) (7, 3.29596833023813360342e+01) (8, -1.27577828537677073761e-01) (0, 2.44602553682994061646e+00) (1, 4.13723823299040893708e-01) (2, 4.63574190308680633699e-01) (3, 4.09302224089732269441e-01) (4, 4.61689007153143982087e-01) (5, -1.55260228432330471549e+00) (6, -2.21062511921460913555e+00) (7, -3.08990115094304762522e+00) (8, 1.09813297101842355374e+00) (0, -1.18697192535737428010e+00) (1, -6.47643729035794063487e-02) (2, -2.07645207542651866195e-01) (3, -4.44413497035443111338e-02) (4, -1.95611115444177363631e-01) (5, 7.72442061520855483003e-01) (6, 8.63297906915638346703e-01) (7, 1.35319834132747396360e+00) (8, -1.48599456624849107778e-01) (0, 2.52377178656529599365e+00) (1, 4.24013931920161346589e-01) (2, 4.51708522309889892732e-01) (3, 4.74550162126650909578e-01) (4, 5.04070725907912353669e-01) (5, -1.54521042175206524405e+00) (6, -2.05589678109224127667e+00) (7, -2.75744728047665521586e+00) (8, 9.37399761980564627528e-01) (0, 9.84450844747276510027e-01) (1, 3.72757125095028563067e-01) (2, 3.60512453511852903887e-01) (3, 1.84859726027149784411e-01) (4, 1.85701775745052921618e-01) (5, 9.82356729747294266097e-01) (6, -5.00474215438747260798e-01) (7, 3.28214629474666708120e+01) (8, 2.45911026626245143856e-01) (0, 1.09469802243296232547e+00) (1, 4.45754353572955230867e-01) (2, 5.19311030079951385652e-01) (3, 4.16146461536517242585e-01) (4, 3.86038084199061493074e-01) (5, -1.33974386649648447012e+00) (6, -1.52216462112578732047e+00) (7, -2.16246148308520025338e+00) (8, 4.10078238571935038692e-01) (0, 1.06399301005188529068e+00) (1, 4.55795881023039917146e-01) (2, 4.03312553336253265535e-01) (3, 4.32283167411913971101e-01) (4, 5.46486784388651947175e-01) (5, -1.41462620005982819826e+00) (6, -1.47062491692218166861e+00) (7, -2.15461074706741495532e+00) (8, 4.34638421858602075343e-01) (0, 1.13973885558292420406e+00) (1, 2.38941907787713597733e-01) (2, 3.92038438374194719849e-01) (3, 3.67696586901340105591e-01) (4, 2.43453696275148012695e-01) (5, 2.43201926363475873227e-01) (6, 4.18969961122178158330e-01) (7, 3.28409627224889391073e+01) (8, 3.48056802778855922664e-01) (0, 3.20010521266370462357e+00) (1, 6.79361135177230512916e-01) (2, 5.66098966114139234840e-01) (3, 5.92169203273868238746e-01) (4, 5.97594663910483991920e-01) (5, -8.14620828600589597102e-01) (6, 4.91315935390741420630e-01) (7, 2.71620100226913052666e+01) (8, -1.76880470917146842558e-01) (9, -1.80848878265207901883e-01) (10, 5.89656461887744676176e-01) (11, -3.39828614801548412050e-01) (12, 1.02743937337444424251e+00) (13, -2.59947675236264830190e-01) (14, 5.24330169589450889589e-01) (15, -2.27140190967122679311e-01) (16, -2.11064028509656553823e-01) (17, 4.87417407960823056978e-01) (18, 1.96960378675382630220e-01) (19, 2.98468843922776227995e-01) 
