FANN_FLO_2.1
num_layers=3
learning_rate=0.700000
connection_rate=1.000000
network_type=0
learning_momentum=0.000000
training_algorithm=2
train_error_function=1
train_stop_function=1
cascade_output_change_fraction=0.010000
quickprop_decay=-0.000100
quickprop_mu=1.750000
rprop_increase_factor=1.200000
rprop_decrease_factor=0.500000
rprop_delta_min=0.000000
rprop_delta_max=50.000000
rprop_delta_zero=0.100000
cascade_output_stagnation_epochs=12
cascade_candidate_change_fraction=0.010000
cascade_candidate_stagnation_epochs=12
cascade_max_out_epochs=150
cascade_min_out_epochs=50
cascade_max_cand_epochs=150
cascade_min_cand_epochs=50
cascade_num_candidate_groups=2
bit_fail_limit=1.00000000000000005551e-01
cascade_candidate_limit=1.00000000000000000000e+03
cascade_weight_multiplier=4.00000000000000022204e-01
cascade_activation_functions_count=10
cascade_activation_functions=3 5 7 8 10 11 14 15 16 17 
cascade_activation_steepnesses_count=4
cascade_activation_steepnesses=2.50000000000000000000e-01 5.00000000000000000000e-01 7.50000000000000000000e-01 1.00000000000000000000e+00 
layer_sizes=17 11 2 
scale_included=0
neurons (num_inputs, activation_function, activation_steepness)=(0, 0, 0.00000000000000000000e+00) (0, 0, 0.00000000000000000000e+00) (0, 0, 0.00000000000000000000e+00) (0, 0, 0.00000000000000000000e+00) (0, 0, 0.00000000000000000000e+00) (0, 0, 0.00000000000000000000e+00) (0, 0, 0.00000000000000000000e+00) (0, 0, 0.00000000000000000000e+00) (0, 0, 0.00000000000000000000e+00) (0, 0, 0.00000000000000000000e+00) (0, 0, 0.00000000000000000000e+00) (0, 0, 0.00000000000000000000e+00) (0, 0, 0.00000000000000000000e+00) (0, 0, 0.00000000000000000000e+00) (0, 0, 0.00000000000000000000e+00) (0, 0, 0.00000000000000000000e+00) (0, 0, 0.00000000000000000000e+00) (17, 6, 5.00000000000000000000e-01) (17, 6, 5.00000000000000000000e-01) (17, 6, 5.00000000000000000000e-01) (17, 6, 5.00000000000000000000e-01) (17, 6, 5.00000000000000000000e-01) (17, 6, 5.00000000000000000000e-01) (17, 6, 5.00000000000000000000e-01) (17, 6, 5.00000000000000000000e-01) (17, 6, 5.00000000000000000000e-01) (17, 6, 5.00000000000000000000e-01) (0, 6, 0.00000000000000000000e+00) (11, 6, 5.00000000000000000000e-01) (0, 6, 0.00000000000000000000e+00) 
connections (connected_to_neuron, weight)=(0, -8.39822226644325320333e-02) (1, -5.13381209289628659409e-02) (2, -4.26402237331468259018e-02) (3, -1.23482566392022381774e-02) (4, -5.15435781395036374253e-02) (5, 1.95818237159549224380e+00) (6, 2.13549168345465023577e+00) (7, 1.65800908005316127714e+00) (8, 3.03928000375138951394e-01) (9, 3.06008638007530819891e+00) (10, 1.16954648778066672143e+00) (11, 1.29122559345993170865e+00) (12, 2.60048120452972186811e+00) (13, 2.22207307008041698992e+00) (14, 7.21470012406688843143e-01) (15, 1.45197940611135001276e+00) (16, 1.36865116803440850513e-01) (0, 9.54519243331991695811e+00) (1, 2.02143007190489998326e-01) (2, 2.97545322449469795689e-01) (3, 2.54950714530015221104e-01) (4, 3.66718159289622536168e-01) (5, -2.79010836022488106778e+00) (6, -2.64842637052593010694e+00) (7, -2.40977851460399827843e+00) (8, -2.96858209381828455631e-02) (9, -2.16574348004826955361e+00) (10, -2.52721690695962442064e+00) (11, -1.99729330658596571091e+00) (12, -3.08956859838929354112e+00) (13, -2.51615087857303398877e+00) (14, 2.08476656001429894172e-01) (15, -1.70709124980711668407e+00) (16, 3.45838804520969100853e-01) (0, -1.62412997579930773462e-01) (1, -1.11635971754096979813e-01) (2, -1.22360709994338970330e-01) (3, -1.20706371360053098252e-02) (4, -9.33948717408408929375e-02) (5, 1.95979528818427550796e+00) (6, 2.04571446713938076556e+00) (7, 1.88242608374266096050e+00) (8, 2.19383576407539138131e-01) (9, 3.06606686426291119574e+00) (10, 1.25053803906068883300e+00) (11, 1.42979951940211424954e+00) (12, 2.06145227705920053296e+00) (13, 2.22875579384102184832e+00) (14, 6.29387742916923675907e-01) (15, 1.49067018919478888606e+00) (16, 1.41762919525254771358e-01) (0, 1.31860555649926980415e+00) (1, 4.04326030354429322156e-01) (2, 5.73266984264780177227e-01) (3, 5.08675032596517695538e-01) (4, 4.88455311696459004711e-01) (5, 7.02604131327974812393e+00) (6, 1.22210596481497901777e+01) (7, 7.17117847458050672316e+00) (8, 6.45787061698574027524e-01) (9, 1.78306223936900352101e+01) (10, 7.80724225600896648558e+00) (11, 8.39659402590460857141e+00) (12, 1.42104538303658074483e+01) (13, 1.21521122062738555769e+01) (14, 2.17249152083791807755e-01) (15, 1.14123774631516710087e+01) (16, -1.75118742508130709190e+00) (0, -4.85902170174884295850e-01) (1, 2.07985486419405840586e-01) (2, 1.63489654244389437387e-01) (3, 2.60814219297375304851e-01) (4, 3.28442386867012658946e-01) (5, 2.67983735203302986250e+00) (6, 4.78056505696158406948e+00) (7, -1.00450487621110728931e+00) (8, 7.59537775601605957831e-01) (9, 7.58198639971638588264e+00) (10, 1.78178808303322822049e+00) (11, 3.77590258069848250244e+00) (12, 3.56506642765638925852e+00) (13, 4.79719996826033590054e+00) (14, 2.28749112833209367057e-01) (15, 4.73529795918161688917e+00) (16, 3.72444851933742160366e-01) (0, 1.29621437606294120926e+00) (1, 5.85303251112497813224e-01) (2, 6.05550948942698008537e-01) (3, 5.41175630355871795096e-01) (4, 4.94319271708525354025e-01) (5, 4.84093469731668868405e+00) (6, 9.99376587789366865877e+00) (7, -2.70142823784601193715e-01) (8, 8.28383221771536337741e-01) (9, 7.44563372654343513801e+00) (10, -4.14139519627719776551e-02) (11, 6.33966175215660765474e+00) (12, 1.21265181640406360941e+01) (13, 9.84184085797379637484e+00) (14, 2.43983113876444668300e-01) (15, 4.74241951841409026258e+00) (16, 3.20604639690701270771e-02) (0, 9.66838370429717564036e+00) (1, 2.05466904909873238072e-01) (2, 2.80332991154456367955e-01) (3, 3.07484851451182594761e-01) (4, 2.77984881074691048131e-01) (5, -2.56706598722751211383e+00) (6, -2.58795838972387093335e+00) (7, -2.35177703360738954430e+00) (8, -5.13985711346397547428e-02) (9, -2.08317072558326854548e+00) (10, -2.44639604848107827806e+00) (11, -1.88192257105988081101e+00) (12, -3.04648819398846804063e+00) (13, -2.64555636217651146680e+00) (14, 1.35761187296729424201e-01) (15, -1.83038087217354505931e+00) (16, 4.61613104470376678368e-01) (0, -3.35926650770184027917e-03) (1, -4.59575276887017880600e-02) (2, -1.38432673743923317922e-01) (3, -1.76000367915230999938e-02) (4, 5.50641942704123282804e-02) (5, 2.01963522229491676541e+00) (6, 2.20458061185612042010e+00) (7, 1.78582649743465848857e+00) (8, 2.11260264262067565255e-01) (9, 3.18801514370331418036e+00) (10, 1.18598900273666418848e+00) (11, 1.36634851984414229520e+00) (12, 1.77573076837974364039e+00) (13, 2.09713985335959751666e+00) (14, 6.89127995709758911502e-01) (15, 1.44944455467950339411e+00) (16, 1.90984249262604516284e-01) (0, -2.39636320865510399347e-01) (1, -1.09142374187015528397e-01) (2, -1.20640229373477916863e-01) (3, -1.02092105834983820634e-01) (4, -1.67011622279189975160e-01) (5, 2.03039532099067132620e+00) (6, 2.23101436284317333758e+00) (7, 1.87984865969328351909e+00) (8, 2.28828822716581115060e-01) (9, 1.79191139144155942020e+00) (10, 1.29098309859857596216e+00) (11, 1.38791907570990691312e+00) (12, 1.38941923269230627191e+00) (13, 1.60499128285652536974e+00) (14, 6.96701756755691681278e-01) (15, 1.53758810453902716731e+00) (16, 2.01559809058137279214e-01) (0, 7.72206589100125517788e-01) (1, 1.80400038785185984347e-01) (2, 2.86600480503287347034e-01) (3, 2.86603401130881341174e-01) (4, 2.04257349199500254366e-01) (5, -2.37590408184076418152e+00) (6, -2.45818026327503025286e+00) (7, -1.41077107346865338044e+00) (8, 7.82173224603859434945e-02) (9, -1.03678387107272973466e+00) (10, -1.87970929471286862800e+00) (11, -4.13103990727661407600e-01) (12, -2.45966793560397922747e+00) (13, -2.45846112036121189348e+00) (14, 2.06775172596039086281e-01) (15, -1.08273240175833751486e+00) (16, 2.61965894380159047827e-01) (17, 2.44990853332084423943e-01) (18, -4.64028659938840848387e-01) (19, 2.57237338760742395571e-01) (20, 8.61190204980303963822e-01) (21, 2.05946393374031255785e-01) (22, 1.66967053089460776283e-01) (23, -8.23307297472505084102e-01) (24, 2.08694314323467022820e-01) (25, 2.70113350191959644686e-01) (26, -2.22491642635474828893e-01) (27, 8.19856671180877238925e-01) 
