FANN_FLO_2.1
num_layers=3
learning_rate=0.700000
connection_rate=1.000000
network_type=0
learning_momentum=0.000000
training_algorithm=2
train_error_function=1
train_stop_function=1
cascade_output_change_fraction=0.010000
quickprop_decay=-0.000100
quickprop_mu=1.750000
rprop_increase_factor=1.200000
rprop_decrease_factor=0.500000
rprop_delta_min=0.000000
rprop_delta_max=50.000000
rprop_delta_zero=0.100000
cascade_output_stagnation_epochs=12
cascade_candidate_change_fraction=0.010000
cascade_candidate_stagnation_epochs=12
cascade_max_out_epochs=150
cascade_min_out_epochs=50
cascade_max_cand_epochs=150
cascade_min_cand_epochs=50
cascade_num_candidate_groups=2
bit_fail_limit=1.00000000000000005551e-01
cascade_candidate_limit=1.00000000000000000000e+03
cascade_weight_multiplier=4.00000000000000022204e-01
cascade_activation_functions_count=10
cascade_activation_functions=3 5 7 8 10 11 14 15 16 17 
cascade_activation_steepnesses_count=4
cascade_activation_steepnesses=2.50000000000000000000e-01 5.00000000000000000000e-01 7.50000000000000000000e-01 1.00000000000000000000e+00 
layer_sizes=9 11 2 
scale_included=0
neurons (num_inputs, activation_function, activation_steepness)=(0, 0, 0.00000000000000000000e+00) (0, 0, 0.00000000000000000000e+00) (0, 0, 0.00000000000000000000e+00) (0, 0, 0.00000000000000000000e+00) (0, 0, 0.00000000000000000000e+00) (0, 0, 0.00000000000000000000e+00) (0, 0, 0.00000000000000000000e+00) (0, 0, 0.00000000000000000000e+00) (0, 0, 0.00000000000000000000e+00) (9, 6, 5.00000000000000000000e-01) (9, 6, 5.00000000000000000000e-01) (9, 6, 5.00000000000000000000e-01) (9, 6, 5.00000000000000000000e-01) (9, 6, 5.00000000000000000000e-01) (9, 6, 5.00000000000000000000e-01) (9, 6, 5.00000000000000000000e-01) (9, 6, 5.00000000000000000000e-01) (9, 6, 5.00000000000000000000e-01) (9, 6, 5.00000000000000000000e-01) (0, 6, 0.00000000000000000000e+00) (11, 6, 5.00000000000000000000e-01) (0, 6, 0.00000000000000000000e+00) 
connections (connected_to_neuron, weight)=(0, -2.96865395395828457481e-01) (1, -9.08083366128813185281e-02) (2, -7.90844159099470533913e-02) (3, -1.65819686827362644532e-01) (4, -1.15631041106880799729e-01) (5, -9.31327095830271345367e-02) (6, 1.24772911641196215804e+00) (7, 8.72221593991859944772e-01) (8, -1.03082135922611090040e-01) (0, -5.09847219466315684788e-02) (1, -1.80290473505731740911e-01) (2, -4.99133894889317933363e-02) (3, -1.47229762628551641424e-01) (4, -1.79763113960500875432e-01) (5, 2.76251542424770402118e-01) (6, -2.83246542461774541977e+00) (7, -3.78308909316564490055e+00) (8, 4.21488280663389752734e-02) (0, 9.50489450813187253253e-02) (1, -3.28235308377705994887e-02) (2, -1.54729222759481588323e-01) (3, -1.25532468661543022970e-01) (4, -1.04284739002462517599e-01) (5, 1.92083950197311448260e-01) (6, -2.82521863230130865219e+00) (7, -3.67448622663522650456e+00) (8, -3.53526551952462603223e-02) (0, -2.79953734866251330304e-03) (1, -1.50032920643564382512e-01) (2, -1.23626639947172295431e-01) (3, -1.39431731656070811987e-01) (4, 9.57200129342446193181e-03) (5, 1.76310020541759537860e-01) (6, -2.89146707900426580551e+00) (7, -3.71262226928974081730e+00) (8, 7.30320583352942059863e-02) (0, 5.11788993430009608865e-01) (1, 1.50134370178474751967e-01) (2, 5.65700237457888929771e-02) (3, 2.00105503649010030287e-01) (4, 1.85365856141342488783e-01) (5, 1.31427015117734774519e-01) (6, 7.65389916092961974936e-02) (7, -8.95633666786971316398e-02) (8, 3.09162580070039993974e-01) (0, -5.11793162106620250218e-02) (1, -1.10304867729421746114e-01) (2, -1.30859831228729378561e-01) (3, -4.56875691859685365004e-02) (4, -1.29039725169416558126e-01) (5, 1.75213928377243088885e-01) (6, -3.82362999520117385899e+00) (7, -3.66279448498989035343e+00) (8, 3.14345653424162457812e-02) (0, 3.98405938696733241677e-01) (1, 2.15370133966698018568e-01) (2, 2.43949894611972181724e-02) (3, 5.31709571187632887290e-02) (4, 9.87867940967219748671e-02) (5, 1.29509526244729861189e-01) (6, 5.58912050516217964735e-02) (7, 3.16556052293953463228e-02) (8, 2.96580218371889359208e-01) (0, 2.82313708783043446071e-02) (1, -4.80875502078496400160e-02) (2, -7.29753727762662285361e-02) (3, -1.35393658533569438696e-01) (4, -1.28875868275638710836e-01) (5, 2.10488039111705826922e-01) (6, -2.80919051118753149154e+00) (7, -3.74256090750003744816e+00) (8, -4.92089842190843035352e-02) (0, -3.17092127292228798119e-01) (1, -7.67683880302320875710e-02) (2, -2.14832742688358890870e-01) (3, -4.49919300052534706924e-02) (4, -4.17314963313948281143e-02) (5, -9.92439887130091291656e-02) (6, 1.23955303925470317061e+00) (7, 9.12336615161045583200e-01) (8, -4.20793206185137574904e-03) (0, -3.91098975329471687523e-01) (1, -4.96017715403441125654e-02) (2, -8.22507521578672851081e-02) (3, -4.47505027741228883498e-03) (4, -4.37731301853064233565e-02) (5, -1.19995248934013587494e-01) (6, 1.35631647828415835555e+00) (7, 9.30145261124714406442e-01) (8, -5.19489439603699962311e-02) (9, 3.92747316065554741282e-01) (10, -3.03680965216079956637e-01) (11, -2.68665426881233460055e-01) (12, -3.05181202949205643282e-01) (13, 2.76658140289755341557e-02) (14, -3.28488291711727387057e-01) (15, 2.70073168146582123783e-02) (16, -3.36362355859199768648e-01) (17, 7.88578453573079318772e-01) (18, 1.03542645658264031994e+00) (19, 3.38023304048735873106e-01) 
