FANN_FLO_2.1
num_layers=3
learning_rate=0.700000
connection_rate=1.000000
network_type=0
learning_momentum=0.000000
training_algorithm=2
train_error_function=1
train_stop_function=1
cascade_output_change_fraction=0.010000
quickprop_decay=-0.000100
quickprop_mu=1.750000
rprop_increase_factor=1.200000
rprop_decrease_factor=0.500000
rprop_delta_min=0.000000
rprop_delta_max=50.000000
rprop_delta_zero=0.100000
cascade_output_stagnation_epochs=12
cascade_candidate_change_fraction=0.010000
cascade_candidate_stagnation_epochs=12
cascade_max_out_epochs=150
cascade_min_out_epochs=50
cascade_max_cand_epochs=150
cascade_min_cand_epochs=50
cascade_num_candidate_groups=2
bit_fail_limit=1.00000000000000005551e-01
cascade_candidate_limit=1.00000000000000000000e+03
cascade_weight_multiplier=4.00000000000000022204e-01
cascade_activation_functions_count=10
cascade_activation_functions=3 5 7 8 10 11 14 15 16 17 
cascade_activation_steepnesses_count=4
cascade_activation_steepnesses=2.50000000000000000000e-01 5.00000000000000000000e-01 7.50000000000000000000e-01 1.00000000000000000000e+00 
layer_sizes=10 11 2 
scale_included=0
neurons (num_inputs, activation_function, activation_steepness)=(0, 0, 0.00000000000000000000e+00) (0, 0, 0.00000000000000000000e+00) (0, 0, 0.00000000000000000000e+00) (0, 0, 0.00000000000000000000e+00) (0, 0, 0.00000000000000000000e+00) (0, 0, 0.00000000000000000000e+00) (0, 0, 0.00000000000000000000e+00) (0, 0, 0.00000000000000000000e+00) (0, 0, 0.00000000000000000000e+00) (0, 0, 0.00000000000000000000e+00) (10, 6, 5.00000000000000000000e-01) (10, 6, 5.00000000000000000000e-01) (10, 6, 5.00000000000000000000e-01) (10, 6, 5.00000000000000000000e-01) (10, 6, 5.00000000000000000000e-01) (10, 6, 5.00000000000000000000e-01) (10, 6, 5.00000000000000000000e-01) (10, 6, 5.00000000000000000000e-01) (10, 6, 5.00000000000000000000e-01) (10, 6, 5.00000000000000000000e-01) (0, 6, 0.00000000000000000000e+00) (11, 6, 5.00000000000000000000e-01) (0, 6, 0.00000000000000000000e+00) 
connections (connected_to_neuron, weight)=(0, -1.00978503376851636020e+00) (1, 2.38163668988108062630e-01) (2, 1.18173782108187130913e-01) (3, 2.27049488900064849739e-01) (4, 7.03348706940407214505e-02) (5, 1.03304408353178933666e+00) (6, 1.12471169095843270824e+00) (7, 1.01058848064749673412e+00) (8, 1.03554156690377352490e+00) (9, -1.66177840697621620469e-01) (0, 1.14285611017682930957e+00) (1, 9.30745094353639806917e-02) (2, 1.05528020792671414774e-01) (3, 1.37000524931617961855e-01) (4, -2.70326048796689644149e-02) (5, -1.68972718789203679712e+00) (6, -1.55931471361740170423e+00) (7, -1.14136191592189839561e+00) (8, -1.61265614702327786389e+00) (9, 2.66604299413846432265e-02) (0, 8.60216154151059786415e-01) (1, 3.30093629856643477893e-01) (2, 4.23788186361131469226e-01) (3, 2.86639441003141204334e-01) (4, 3.60815067042646209217e-01) (5, -1.64161684065087354334e+00) (6, -1.61278487815483151380e+00) (7, -1.84225666591970660413e+00) (8, -1.56112761869056759778e+00) (9, 1.22739675151078558857e-01) (0, 8.79991172247029940223e-01) (1, 3.58443673898515502430e-01) (2, 3.87256693293390075183e-01) (3, 3.23559731443462172962e-01) (4, 3.34547557135162154651e-01) (5, -1.57867610528095303479e+00) (6, -1.56227159573658047620e+00) (7, -1.82331586698143222058e+00) (8, -1.70164097919090306910e+00) (9, 7.58254329430745610541e-02) (0, 8.55520202212430636024e-01) (1, 3.86344265391168395496e-01) (2, 2.96016913105783263660e-01) (3, 3.87206588138875762439e-01) (4, 3.73162795056638518787e-01) (5, -1.66651974691970861109e+00) (6, -1.58597549124582348767e+00) (7, -1.83330652186720111096e+00) (8, -1.64098081438763654383e+00) (9, 1.12585971820043061198e-02) (0, 7.59879371516801405129e-01) (1, 2.97442887176809112049e-01) (2, 3.35196320165929595447e-01) (3, 4.76553064038095275379e-01) (4, 3.00627436687288085437e-01) (5, -1.57276555969341336194e+00) (6, -1.64851867108567273768e+00) (7, -1.75931204179374933716e+00) (8, -1.54945536031349240247e+00) (9, 2.00243937479226419285e-01) (0, 7.29953093819715070900e-01) (1, 6.32600999469736691161e-01) (2, 5.76389341647604580565e-01) (3, 6.33952922220209713622e-01) (4, 6.72705835695246223693e-01) (5, -1.74539739707557917114e+00) (6, -1.81573541903941371167e+00) (7, -2.32999619519906220333e+00) (8, -1.87968526994844475908e+00) (9, 5.62135490345643459853e-02) (0, -1.03290313867469718545e+00) (1, 1.61771785793661526665e-01) (2, 2.03892622468828610405e-01) (3, 2.38166038272737884407e-01) (4, 6.55234869102234301907e-02) (5, 9.76208260770730418265e-01) (6, 9.56121190007619303763e-01) (7, 1.06402289729922250316e+00) (8, 9.80382877285662979183e-01) (9, -1.88878336715554512315e-01) (0, 1.73361259353727537036e-01) (1, 6.20039805917422359727e-01) (2, 5.89801862983386104844e-01) (3, 6.79673344044367855332e-01) (4, 6.13137982933203762315e-01) (5, 3.31207121390067493749e+00) (6, 3.31387174355946934057e+00) (7, 3.37158327776156729882e+00) (8, 3.21832604187690174413e+00) (9, 1.54027740089772990917e-01) (0, 2.06003832471937375903e-01) (1, 5.36067824958245342515e-01) (2, 6.86475202588717303698e-01) (3, 5.29651306717078274033e-01) (4, 6.62708223013560360215e-01) (5, 3.35696532803736991113e+00) (6, 3.35491758066378897851e+00) (7, 3.21763647574149524999e+00) (8, 3.26195419806205189062e+00) (9, 2.05082269935487560009e-01) (10, 3.57775807257203037892e-01) (11, -4.61436383548370354646e-01) (12, -3.24776177516802266876e-01) (13, -3.32299296966417745391e-01) (14, -3.29107401183470205108e-01) (15, -3.10198300740345433990e-01) (16, -2.89644387772901856781e-01) (17, 1.71477113482581128290e-02) (18, 7.21170526293132829743e-01) (19, 6.86170142439220476227e-01) (20, 3.28066076707984544125e-01) 
