FANN_FLO_2.1
num_layers=3
learning_rate=0.700000
connection_rate=1.000000
network_type=0
learning_momentum=0.000000
training_algorithm=2
train_error_function=1
train_stop_function=1
cascade_output_change_fraction=0.010000
quickprop_decay=-0.000100
quickprop_mu=1.750000
rprop_increase_factor=1.200000
rprop_decrease_factor=0.500000
rprop_delta_min=0.000000
rprop_delta_max=50.000000
rprop_delta_zero=0.100000
cascade_output_stagnation_epochs=12
cascade_candidate_change_fraction=0.010000
cascade_candidate_stagnation_epochs=12
cascade_max_out_epochs=150
cascade_min_out_epochs=50
cascade_max_cand_epochs=150
cascade_min_cand_epochs=50
cascade_num_candidate_groups=2
bit_fail_limit=1.00000000000000005551e-01
cascade_candidate_limit=1.00000000000000000000e+03
cascade_weight_multiplier=4.00000000000000022204e-01
cascade_activation_functions_count=10
cascade_activation_functions=3 5 7 8 10 11 14 15 16 17 
cascade_activation_steepnesses_count=4
cascade_activation_steepnesses=2.50000000000000000000e-01 5.00000000000000000000e-01 7.50000000000000000000e-01 1.00000000000000000000e+00 
layer_sizes=6 4 2 
scale_included=0
neurons (num_inputs, activation_function, activation_steepness)=(0, 0, 0.00000000000000000000e+00) (0, 0, 0.00000000000000000000e+00) (0, 0, 0.00000000000000000000e+00) (0, 0, 0.00000000000000000000e+00) (0, 0, 0.00000000000000000000e+00) (0, 0, 0.00000000000000000000e+00) (6, 6, 5.00000000000000000000e-01) (6, 6, 5.00000000000000000000e-01) (6, 6, 5.00000000000000000000e-01) (0, 6, 0.00000000000000000000e+00) (4, 4, 5.00000000000000000000e-01) (0, 4, 0.00000000000000000000e+00) 
connections (connected_to_neuron, weight)=(0, -3.03791387745372798435e+00) (1, 3.19047935673229243747e+00) (2, -5.11127934908891301546e-01) (3, -2.08684879749020879558e+00) (4, 3.12810326733819987766e+00) (5, 4.80139207412447199808e-03) (0, -3.05196047195426967136e+00) (1, 3.20795350142948176853e+00) (2, -4.98279527878785766237e-01) (3, -2.11687786339721029094e+00) (4, 3.20513555773727443210e+00) (5, 8.89805848555728640115e-02) (0, 3.17020650574199702731e+00) (1, -3.10594436892501857272e+00) (2, 1.03827597138502272789e-01) (3, 1.51436934586397153879e+00) (4, -3.10366021462909724704e+00) (5, 1.70952724576696524217e-01) (6, 3.18069613346092250339e+00) (7, 3.14129628607265498630e+00) (8, -3.19392163672678019992e+00) (9, 5.68718607382938112771e-02) 
