FANN_FLO_2.1
num_layers=3
learning_rate=0.700000
connection_rate=1.000000
network_type=0
learning_momentum=0.000000
training_algorithm=2
train_error_function=1
train_stop_function=1
cascade_output_change_fraction=0.010000
quickprop_decay=-0.000100
quickprop_mu=1.750000
rprop_increase_factor=1.200000
rprop_decrease_factor=0.500000
rprop_delta_min=0.000000
rprop_delta_max=50.000000
rprop_delta_zero=0.100000
cascade_output_stagnation_epochs=12
cascade_candidate_change_fraction=0.010000
cascade_candidate_stagnation_epochs=12
cascade_max_out_epochs=150
cascade_min_out_epochs=50
cascade_max_cand_epochs=150
cascade_min_cand_epochs=50
cascade_num_candidate_groups=2
bit_fail_limit=1.00000000000000005551e-01
cascade_candidate_limit=1.00000000000000000000e+03
cascade_weight_multiplier=4.00000000000000022204e-01
cascade_activation_functions_count=10
cascade_activation_functions=3 5 7 8 10 11 14 15 16 17 
cascade_activation_steepnesses_count=4
cascade_activation_steepnesses=2.50000000000000000000e-01 5.00000000000000000000e-01 7.50000000000000000000e-01 1.00000000000000000000e+00 
layer_sizes=7 4 2 
scale_included=0
neurons (num_inputs, activation_function, activation_steepness)=(0, 0, 0.00000000000000000000e+00) (0, 0, 0.00000000000000000000e+00) (0, 0, 0.00000000000000000000e+00) (0, 0, 0.00000000000000000000e+00) (0, 0, 0.00000000000000000000e+00) (0, 0, 0.00000000000000000000e+00) (0, 0, 0.00000000000000000000e+00) (7, 6, 5.00000000000000000000e-01) (7, 6, 5.00000000000000000000e-01) (7, 6, 5.00000000000000000000e-01) (0, 6, 0.00000000000000000000e+00) (4, 4, 5.00000000000000000000e-01) (0, 4, 0.00000000000000000000e+00) 
connections (connected_to_neuron, weight)=(0, -2.13146262068955438806e+00) (1, -2.56513332688899087231e-01) (2, -6.88540300561150120373e-02) (3, 1.33262737352684279557e+00) (4, -2.09568447340218266817e+00) (5, -2.23309258843984048681e+00) (6, 7.05314818555120348620e-01) (0, 5.65295192527258727466e+00) (1, 9.58000257784986986032e-01) (2, 7.61395312089797604571e-02) (3, -4.65312719168100852318e-01) (4, 1.60065082532572056095e+00) (5, 3.63420153629294384601e+00) (6, -1.61224521176078483542e+00) (0, -2.04811766584126564439e+00) (1, -1.36185230577082594383e-01) (2, -2.49806957904790322145e-01) (3, 1.79532281732253018447e+00) (4, -2.02974736053435034222e+00) (5, -2.02776372540680593914e+00) (6, 2.50659402795826435906e-01) (7, 1.41590142655624845247e+02) (8, -1.53266489984901816968e+01) (9, 2.16895307630931055698e+00) (10, 1.50260325149997853167e+00) 
