FANN_FLO_2.1
num_layers=3
learning_rate=0.700000
connection_rate=1.000000
network_type=0
learning_momentum=0.000000
training_algorithm=2
train_error_function=1
train_stop_function=1
cascade_output_change_fraction=0.010000
quickprop_decay=-0.000100
quickprop_mu=1.750000
rprop_increase_factor=1.200000
rprop_decrease_factor=0.500000
rprop_delta_min=0.000000
rprop_delta_max=50.000000
rprop_delta_zero=0.100000
cascade_output_stagnation_epochs=12
cascade_candidate_change_fraction=0.010000
cascade_candidate_stagnation_epochs=12
cascade_max_out_epochs=150
cascade_min_out_epochs=50
cascade_max_cand_epochs=150
cascade_min_cand_epochs=50
cascade_num_candidate_groups=2
bit_fail_limit=1.00000000000000005551e-01
cascade_candidate_limit=1.00000000000000000000e+03
cascade_weight_multiplier=4.00000000000000022204e-01
cascade_activation_functions_count=10
cascade_activation_functions=3 5 7 8 10 11 14 15 16 17 
cascade_activation_steepnesses_count=4
cascade_activation_steepnesses=2.50000000000000000000e-01 5.00000000000000000000e-01 7.50000000000000000000e-01 1.00000000000000000000e+00 
layer_sizes=7 4 2 
scale_included=0
neurons (num_inputs, activation_function, activation_steepness)=(0, 0, 0.00000000000000000000e+00) (0, 0, 0.00000000000000000000e+00) (0, 0, 0.00000000000000000000e+00) (0, 0, 0.00000000000000000000e+00) (0, 0, 0.00000000000000000000e+00) (0, 0, 0.00000000000000000000e+00) (0, 0, 0.00000000000000000000e+00) (7, 6, 5.00000000000000000000e-01) (7, 6, 5.00000000000000000000e-01) (7, 6, 5.00000000000000000000e-01) (0, 6, 0.00000000000000000000e+00) (4, 4, 5.00000000000000000000e-01) (0, 4, 0.00000000000000000000e+00) 
connections (connected_to_neuron, weight)=(0, -4.22125022524408155533e+00) (1, 2.82714175864656214188e+00) (2, -6.83291237399786394180e-03) (3, -7.21551632212859783699e-01) (4, -2.11340189114645315982e+00) (5, -2.12580464914873434878e+00) (6, -2.12474458171993840772e-01) (0, -4.14762003385833555313e+00) (1, 2.88117526158292536209e+00) (2, 5.63182460184314809259e-02) (3, -8.52148590313655529549e-01) (4, -1.99882204220131232120e+00) (5, -2.05357030913666083194e+00) (6, -2.78896853580147374707e-01) (0, -1.63887968269745032401e+00) (1, 1.33348908683488898141e+00) (2, 7.13675151087952014395e-02) (3, -3.24055608116182058964e-01) (4, -1.65622724203029791923e+00) (5, -1.70949221757808844657e+00) (6, -2.58128155535666120590e-02) (7, 5.54299510219415303425e+00) (8, 5.53953470238765355305e+00) (9, 1.33991483544968232877e+01) (10, -6.80200285429606532617e-01) 
