FANN_FLO_2.1
num_layers=3
learning_rate=0.700000
connection_rate=1.000000
network_type=0
learning_momentum=0.000000
training_algorithm=2
train_error_function=1
train_stop_function=1
cascade_output_change_fraction=0.010000
quickprop_decay=-0.000100
quickprop_mu=1.750000
rprop_increase_factor=1.200000
rprop_decrease_factor=0.500000
rprop_delta_min=0.000000
rprop_delta_max=50.000000
rprop_delta_zero=0.100000
cascade_output_stagnation_epochs=12
cascade_candidate_change_fraction=0.010000
cascade_candidate_stagnation_epochs=12
cascade_max_out_epochs=150
cascade_min_out_epochs=50
cascade_max_cand_epochs=150
cascade_min_cand_epochs=50
cascade_num_candidate_groups=2
bit_fail_limit=1.00000000000000005551e-01
cascade_candidate_limit=1.00000000000000000000e+03
cascade_weight_multiplier=4.00000000000000022204e-01
cascade_activation_functions_count=10
cascade_activation_functions=3 5 7 8 10 11 14 15 16 17 
cascade_activation_steepnesses_count=4
cascade_activation_steepnesses=2.50000000000000000000e-01 5.00000000000000000000e-01 7.50000000000000000000e-01 1.00000000000000000000e+00 
layer_sizes=7 4 2 
scale_included=0
neurons (num_inputs, activation_function, activation_steepness)=(0, 0, 0.00000000000000000000e+00) (0, 0, 0.00000000000000000000e+00) (0, 0, 0.00000000000000000000e+00) (0, 0, 0.00000000000000000000e+00) (0, 0, 0.00000000000000000000e+00) (0, 0, 0.00000000000000000000e+00) (0, 0, 0.00000000000000000000e+00) (7, 6, 5.00000000000000000000e-01) (7, 6, 5.00000000000000000000e-01) (7, 6, 5.00000000000000000000e-01) (0, 6, 0.00000000000000000000e+00) (4, 4, 5.00000000000000000000e-01) (0, 4, 0.00000000000000000000e+00) 
connections (connected_to_neuron, weight)=(0, 5.01291702375418868343e+00) (1, 1.58698298612553578835e+00) (2, 9.96019410679346850479e-01) (3, -1.24651385012458604251e+00) (4, 1.83788619437442934945e+00) (5, 1.64616309411498895621e+00) (6, -1.70020735806550060687e+00) (0, -1.19448551257399082637e+00) (1, -7.62406004493276667766e-01) (2, -4.08436904777225023855e-02) (3, 7.20833887851006549496e-01) (4, -1.02388331361829520993e+00) (5, -1.06432102756929869436e+00) (6, 7.17962606404734304810e-01) (0, -7.86085012177261788224e+00) (1, -9.96174756969391506090e-01) (2, 9.97341557086196123239e-02) (3, 2.70317490719600694860e+00) (4, -1.03622169411561215746e+00) (5, -1.34819874990967170092e+00) (6, 8.22193029675252207156e-01) (7, -5.70694767001741638524e+01) (8, 2.01984573577163484259e+00) (9, 3.48663054621674518785e+02) (10, 2.54549676238011390872e-01) 
