FANN_FLO_2.1
num_layers=3
learning_rate=0.700000
connection_rate=1.000000
network_type=0
learning_momentum=0.000000
training_algorithm=2
train_error_function=1
train_stop_function=1
cascade_output_change_fraction=0.010000
quickprop_decay=-0.000100
quickprop_mu=1.750000
rprop_increase_factor=1.200000
rprop_decrease_factor=0.500000
rprop_delta_min=0.000000
rprop_delta_max=50.000000
rprop_delta_zero=0.100000
cascade_output_stagnation_epochs=12
cascade_candidate_change_fraction=0.010000
cascade_candidate_stagnation_epochs=12
cascade_max_out_epochs=150
cascade_min_out_epochs=50
cascade_max_cand_epochs=150
cascade_min_cand_epochs=50
cascade_num_candidate_groups=2
bit_fail_limit=1.00000000000000005551e-01
cascade_candidate_limit=1.00000000000000000000e+03
cascade_weight_multiplier=4.00000000000000022204e-01
cascade_activation_functions_count=10
cascade_activation_functions=3 5 7 8 10 11 14 15 16 17 
cascade_activation_steepnesses_count=4
cascade_activation_steepnesses=2.50000000000000000000e-01 5.00000000000000000000e-01 7.50000000000000000000e-01 1.00000000000000000000e+00 
layer_sizes=7 4 2 
scale_included=0
neurons (num_inputs, activation_function, activation_steepness)=(0, 0, 0.00000000000000000000e+00) (0, 0, 0.00000000000000000000e+00) (0, 0, 0.00000000000000000000e+00) (0, 0, 0.00000000000000000000e+00) (0, 0, 0.00000000000000000000e+00) (0, 0, 0.00000000000000000000e+00) (0, 0, 0.00000000000000000000e+00) (7, 6, 5.00000000000000000000e-01) (7, 6, 5.00000000000000000000e-01) (7, 6, 5.00000000000000000000e-01) (0, 6, 0.00000000000000000000e+00) (4, 4, 5.00000000000000000000e-01) (0, 4, 0.00000000000000000000e+00) 
connections (connected_to_neuron, weight)=(0, -1.92831799737696019115e+00) (1, 1.89170966183886024581e+00) (2, 5.16057962245045631633e-02) (3, -6.54133268886520902186e-02) (4, -8.26355353561256944506e-02) (5, -8.78991874045324195208e-01) (6, -2.65059478551404659186e-01) (0, 2.86961855305683144479e+00) (1, -1.25798368582359243462e+00) (2, 3.37137040168899337900e-01) (3, 7.01101647658010196373e-01) (4, 5.60897132349868710044e-01) (5, 9.57966497721338572369e-01) (6, 6.28485492674000112423e-01) (0, -1.87783013261441578123e+00) (1, 1.79609161129340622054e+00) (2, 1.34845172769456955741e-01) (3, -1.48624812185139898446e-01) (4, -1.09270824548325401482e-01) (5, -1.01133441749830210732e+00) (6, -1.74539084043822151360e-01) (7, 5.63222965170255029932e+00) (8, -9.72339328584469342331e+00) (9, 5.61673575211873377100e+00) (10, -4.07651153144382872445e-03) 
