FANN_FLO_2.1
num_layers=3
learning_rate=0.700000
connection_rate=1.000000
network_type=0
learning_momentum=0.000000
training_algorithm=2
train_error_function=1
train_stop_function=1
cascade_output_change_fraction=0.010000
quickprop_decay=-0.000100
quickprop_mu=1.750000
rprop_increase_factor=1.200000
rprop_decrease_factor=0.500000
rprop_delta_min=0.000000
rprop_delta_max=50.000000
rprop_delta_zero=0.100000
cascade_output_stagnation_epochs=12
cascade_candidate_change_fraction=0.010000
cascade_candidate_stagnation_epochs=12
cascade_max_out_epochs=150
cascade_min_out_epochs=50
cascade_max_cand_epochs=150
cascade_min_cand_epochs=50
cascade_num_candidate_groups=2
bit_fail_limit=1.00000000000000005551e-01
cascade_candidate_limit=1.00000000000000000000e+03
cascade_weight_multiplier=4.00000000000000022204e-01
cascade_activation_functions_count=10
cascade_activation_functions=3 5 7 8 10 11 14 15 16 17 
cascade_activation_steepnesses_count=4
cascade_activation_steepnesses=2.50000000000000000000e-01 5.00000000000000000000e-01 7.50000000000000000000e-01 1.00000000000000000000e+00 
layer_sizes=13 11 2 
scale_included=0
neurons (num_inputs, activation_function, activation_steepness)=(0, 0, 0.00000000000000000000e+00) (0, 0, 0.00000000000000000000e+00) (0, 0, 0.00000000000000000000e+00) (0, 0, 0.00000000000000000000e+00) (0, 0, 0.00000000000000000000e+00) (0, 0, 0.00000000000000000000e+00) (0, 0, 0.00000000000000000000e+00) (0, 0, 0.00000000000000000000e+00) (0, 0, 0.00000000000000000000e+00) (0, 0, 0.00000000000000000000e+00) (0, 0, 0.00000000000000000000e+00) (0, 0, 0.00000000000000000000e+00) (0, 0, 0.00000000000000000000e+00) (13, 6, 5.00000000000000000000e-01) (13, 6, 5.00000000000000000000e-01) (13, 6, 5.00000000000000000000e-01) (13, 6, 5.00000000000000000000e-01) (13, 6, 5.00000000000000000000e-01) (13, 6, 5.00000000000000000000e-01) (13, 6, 5.00000000000000000000e-01) (13, 6, 5.00000000000000000000e-01) (13, 6, 5.00000000000000000000e-01) (13, 6, 5.00000000000000000000e-01) (0, 6, 0.00000000000000000000e+00) (11, 6, 5.00000000000000000000e-01) (0, 6, 0.00000000000000000000e+00) 
connections (connected_to_neuron, weight)=(0, 1.74065793586220846079e-01) (1, 1.74274881289052552269e-01) (2, 1.64340038702535218285e-01) (3, 7.75056489861484371184e-02) (4, 2.20019449398564881371e-01) (5, 1.48089053476419874045e-01) (6, 5.18425529097332971062e-01) (7, 1.24921856936005923333e-01) (8, 1.15718871835184922148e-01) (9, 2.27488435068984085063e-01) (10, 2.19112178864402984413e-01) (11, 1.46263995253395506779e-01) (12, -3.43410043779034890310e-01) (0, 3.07707238582824615936e-01) (1, -6.96118583507383675846e-02) (2, -1.98663731641615104451e-02) (3, -8.87483691401327184911e-02) (4, 6.37911374144708442913e-02) (5, -1.60674282008501673191e-01) (6, -5.72694538394102115042e-01) (7, -1.23509508357944552959e-01) (8, -2.35651583524473601239e-01) (9, -5.09828839705323555442e-01) (10, -3.41054755535767917252e-01) (11, -5.18164385589822473754e-01) (12, 1.93857010282800973355e-01) (0, -2.52899351716438669513e+00) (1, 1.03365826530870208444e+00) (2, 1.12794872297462234201e+00) (3, 1.09552778972800979318e+00) (4, 1.08633966668065795602e+00) (5, 1.12320009008650978366e+00) (6, 3.63731650542236861767e+00) (7, 1.02831573708471069040e+00) (8, 1.03720507012407292535e+00) (9, 1.72811272332746135305e+00) (10, 1.07019660546001205148e+00) (11, 1.28237146717768735193e+00) (12, -1.62090674030688197682e+00) (0, 2.04521550518717870615e-01) (1, 8.21817561279027802845e-02) (2, 1.64990682829448509494e-01) (3, 1.96933244098254967014e-01) (4, 1.06915359128543677181e-01) (5, 1.59907133248919419710e-01) (6, 6.32146661406227550195e-01) (7, 3.72303836103467955532e-01) (8, 1.95482284356539269543e-02) (9, 3.99580805757899171216e-01) (10, 1.24607069905785891595e-01) (11, 1.44506433092903563420e-01) (12, -2.18142411473412789480e-01) (0, 1.12386896158248017485e+00) (1, 3.21117035640039294453e-01) (2, 2.17775769127168505879e-01) (3, 2.16919734669484942646e-01) (4, 2.18311197651185839863e-01) (5, -9.91928295629763367991e-01) (6, -3.56989231902891335224e-01) (7, -8.80564459996962201060e-01) (8, -8.96372319596552502574e-01) (9, -8.89878520208143841685e-01) (10, -9.37561423915171276988e-01) (11, -8.48905438023352276744e-01) (12, 6.74115882441394531632e-01) (0, 2.59582477027513747192e-01) (1, -8.64749585814321569677e-02) (2, -7.40016882843816808935e-02) (3, 4.45761347584878800387e-02) (4, -8.30850487179601721044e-02) (5, -1.92495041102449887527e-01) (6, -7.46720920267892385169e-01) (7, 7.44769817146280488362e-04) (8, -2.82814990164977908549e-01) (9, -6.50441269472696537157e-01) (10, -1.80930397169585283068e-01) (11, -2.55379782071598337989e-01) (12, 3.02457932012442420877e-01) (0, -2.43904741108814615558e+00) (1, 1.05685915349539527597e+00) (2, 1.05220990179594764413e+00) (3, 1.04912228806432494821e+00) (4, 1.00686039699729712460e+00) (5, 1.00212071970706206869e+00) (6, 3.74881113972283896985e+00) (7, 1.01333015336211951229e+00) (8, 8.66597734258575336241e-01) (9, 1.84895705769139873098e+00) (10, 1.03694841189798125924e+00) (11, 1.28252431583863324427e+00) (12, -2.39458654359885825258e+00) (0, 2.03971266155609287640e-01) (1, 1.33892109578050561014e-01) (2, 1.20320429985917992655e-01) (3, 6.41784574441088828678e-02) (4, 8.79040713957919273014e-02) (5, 6.42900543485679931699e-02) (6, 3.78519346023786729116e-01) (7, 4.11898050477362054345e-01) (8, 2.15425048593272217001e-01) (9, 5.32314694569833712912e-01) (10, 1.09167785037254605474e-01) (11, 1.36741800767844132181e-02) (12, -2.28744521373300646605e-01) (0, -7.48179460906211180049e-02) (1, -1.00489511262348493736e-01) (2, -7.50917784084590284044e-02) (3, -5.59393308271678435517e-02) (4, -2.06204175125530575485e-01) (5, -1.33922631863022001397e-01) (6, -1.62222479938917002462e-01) (7, -1.26703376649823090672e-01) (8, -9.15839921226166558954e-02) (9, -1.60090835834427097639e-01) (10, -1.04779722868409044811e-01) (11, -1.20561665487945293695e-01) (12, -1.30582538702168293732e+00) (0, 2.86896723044362200739e-01) (1, 8.67475027866690812095e-02) (2, 1.38837518049034380763e-01) (3, 2.42998534692081658015e-01) (4, 1.87696302188190722315e-01) (5, 3.54608660998220470706e-01) (6, 8.57815015074714082299e-02) (7, 2.59801905509203900912e-01) (8, 3.27044732047326869306e-01) (9, 7.61465691063717697862e-02) (10, 1.46247898914248386504e-01) (11, 2.25130378886847976050e-01) (12, -2.46487430864362894178e-01) (13, 5.23000003425598047890e-01) (14, -4.88931460037564824539e-01) (15, -1.40863062417797002546e-01) (16, 5.34786345251012762425e-01) (17, -5.64274360333595792483e-01) (18, -4.98240178182458581801e-01) (19, -2.24032600691783018165e-01) (20, 4.82689738136482915376e-01) (21, 3.48942940524499256583e-01) (22, 4.93999436360550603364e-01) (23, 2.46339653518462181614e-01) 
