FANN_FLO_2.1
num_layers=3
learning_rate=0.700000
connection_rate=1.000000
network_type=0
learning_momentum=0.000000
training_algorithm=2
train_error_function=1
train_stop_function=1
cascade_output_change_fraction=0.010000
quickprop_decay=-0.000100
quickprop_mu=1.750000
rprop_increase_factor=1.200000
rprop_decrease_factor=0.500000
rprop_delta_min=0.000000
rprop_delta_max=50.000000
rprop_delta_zero=0.100000
cascade_output_stagnation_epochs=12
cascade_candidate_change_fraction=0.010000
cascade_candidate_stagnation_epochs=12
cascade_max_out_epochs=150
cascade_min_out_epochs=50
cascade_max_cand_epochs=150
cascade_min_cand_epochs=50
cascade_num_candidate_groups=2
bit_fail_limit=1.00000000000000005551e-01
cascade_candidate_limit=1.00000000000000000000e+03
cascade_weight_multiplier=4.00000000000000022204e-01
cascade_activation_functions_count=10
cascade_activation_functions=3 5 7 8 10 11 14 15 16 17 
cascade_activation_steepnesses_count=4
cascade_activation_steepnesses=2.50000000000000000000e-01 5.00000000000000000000e-01 7.50000000000000000000e-01 1.00000000000000000000e+00 
layer_sizes=8 4 2 
scale_included=0
neurons (num_inputs, activation_function, activation_steepness)=(0, 0, 0.00000000000000000000e+00) (0, 0, 0.00000000000000000000e+00) (0, 0, 0.00000000000000000000e+00) (0, 0, 0.00000000000000000000e+00) (0, 0, 0.00000000000000000000e+00) (0, 0, 0.00000000000000000000e+00) (0, 0, 0.00000000000000000000e+00) (0, 0, 0.00000000000000000000e+00) (8, 6, 5.00000000000000000000e-01) (8, 6, 5.00000000000000000000e-01) (8, 6, 5.00000000000000000000e-01) (0, 6, 0.00000000000000000000e+00) (4, 4, 5.00000000000000000000e-01) (0, 4, 0.00000000000000000000e+00) 
connections (connected_to_neuron, weight)=(0, 2.21222232415715563958e-01) (1, 8.31099145528665927962e-01) (2, 5.14172555808055253834e+00) (3, 7.30914786798851023875e-01) (4, 6.08548962528602022104e-01) (5, -3.20988512024963323910e+00) (6, 5.13063119653689714283e+00) (7, 7.63378603706131170226e-02) (0, 3.81113520859330867641e-01) (1, -5.38493695481157219618e-01) (2, 2.34648675952942920020e+00) (3, 1.42785269230335742918e+00) (4, 1.72582971199006074414e+00) (5, 6.04394768330429776881e+00) (6, 4.97905778148522060178e+00) (7, 8.74682825710224709503e-01) (0, -6.68493165225438612520e-02) (1, 1.42350115503936680561e+00) (2, 1.27421909417497918326e+01) (3, 1.32740184083897472256e+00) (4, 1.04293174333530958009e+00) (5, -8.22617930648161355123e+00) (6, 1.26383917849051758964e+01) (7, -2.20587734515395011980e-01) (8, 1.30525093744490439107e+00) (9, -3.44713895994565833192e+00) (10, 1.27564561064827248771e+01) (11, -4.21765899929734344731e-01) 
