FANN_FLO_2.1
num_layers=3
learning_rate=0.700000
connection_rate=1.000000
network_type=0
learning_momentum=0.000000
training_algorithm=2
train_error_function=1
train_stop_function=1
cascade_output_change_fraction=0.010000
quickprop_decay=-0.000100
quickprop_mu=1.750000
rprop_increase_factor=1.200000
rprop_decrease_factor=0.500000
rprop_delta_min=0.000000
rprop_delta_max=50.000000
rprop_delta_zero=0.100000
cascade_output_stagnation_epochs=12
cascade_candidate_change_fraction=0.010000
cascade_candidate_stagnation_epochs=12
cascade_max_out_epochs=150
cascade_min_out_epochs=50
cascade_max_cand_epochs=150
cascade_min_cand_epochs=50
cascade_num_candidate_groups=2
bit_fail_limit=1.00000000000000005551e-01
cascade_candidate_limit=1.00000000000000000000e+03
cascade_weight_multiplier=4.00000000000000022204e-01
cascade_activation_functions_count=10
cascade_activation_functions=3 5 7 8 10 11 14 15 16 17 
cascade_activation_steepnesses_count=4
cascade_activation_steepnesses=2.50000000000000000000e-01 5.00000000000000000000e-01 7.50000000000000000000e-01 1.00000000000000000000e+00 
layer_sizes=13 11 2 
scale_included=0
neurons (num_inputs, activation_function, activation_steepness)=(0, 0, 0.00000000000000000000e+00) (0, 0, 0.00000000000000000000e+00) (0, 0, 0.00000000000000000000e+00) (0, 0, 0.00000000000000000000e+00) (0, 0, 0.00000000000000000000e+00) (0, 0, 0.00000000000000000000e+00) (0, 0, 0.00000000000000000000e+00) (0, 0, 0.00000000000000000000e+00) (0, 0, 0.00000000000000000000e+00) (0, 0, 0.00000000000000000000e+00) (0, 0, 0.00000000000000000000e+00) (0, 0, 0.00000000000000000000e+00) (0, 0, 0.00000000000000000000e+00) (13, 6, 5.00000000000000000000e-01) (13, 6, 5.00000000000000000000e-01) (13, 6, 5.00000000000000000000e-01) (13, 6, 5.00000000000000000000e-01) (13, 6, 5.00000000000000000000e-01) (13, 6, 5.00000000000000000000e-01) (13, 6, 5.00000000000000000000e-01) (13, 6, 5.00000000000000000000e-01) (13, 6, 5.00000000000000000000e-01) (13, 6, 5.00000000000000000000e-01) (0, 6, 0.00000000000000000000e+00) (11, 6, 5.00000000000000000000e-01) (0, 6, 0.00000000000000000000e+00) 
connections (connected_to_neuron, weight)=(0, 7.64646525517120423387e-01) (1, -7.37910285434781043623e-02) (2, -8.24975013575612037275e-02) (3, -3.23952153167783030163e-02) (4, 3.96270157479656180699e-03) (5, -4.71475078127179314524e-01) (6, 4.73825409701008393171e-01) (7, 8.97001161452610884517e-01) (8, 9.67296722469301983871e-01) (9, 1.07060983076746429887e+00) (10, 1.02582353398258607768e+00) (11, 2.09014054554397615826e-01) (12, 2.24414290491879053757e-01) (0, -1.59298324110459438296e-01) (1, -2.08526129056454651023e-01) (2, -1.94457436133862515693e-01) (3, -3.36918847788811648414e-01) (4, -2.93133469451905159797e-01) (5, 1.12217186909609231704e-01) (6, 1.10089537439599149948e+00) (7, -2.85878202532708014516e-01) (8, 6.01137612147739530677e-01) (9, 5.47656571071592268574e-01) (10, 5.10181987237182554829e-01) (11, 2.72418978459540550574e-01) (12, -6.05038801759011021786e-02) (0, 6.38081604273073033085e-01) (1, -2.36782468287116583394e-02) (2, 2.51010135384434063255e-02) (3, 4.36017700107925801345e-02) (4, 1.41373965946041846298e-01) (5, 1.77281613939656551571e-01) (6, -4.93648921497163606364e-01) (7, 4.61946040991139950105e-01) (8, -7.20282777596961576450e-01) (9, -7.48711135566842544975e-01) (10, -7.46754249231298183886e-01) (11, -3.63988677833172680209e-01) (12, 4.96083884852541734389e-01) (0, 2.37952782173810373223e+00) (1, 7.07936566115840659741e-01) (2, 5.71239601613506065014e-01) (3, 5.79530399085506187085e-01) (4, 7.50418361069186912182e-01) (5, 3.62619777664597076061e-01) (6, -8.36199030319632896635e+00) (7, 2.99585418859132479596e+00) (8, -7.00671020203701200302e-01) (9, -1.27700080639017587991e+00) (10, -1.27276891734801123057e+00) (11, 2.07355705787415933727e+00) (12, 3.86442300085452938863e-01) (0, 2.38756601502713046159e+01) (1, -7.85105762341302415575e-02) (2, -1.26313803055566453021e-02) (3, -6.58504714527410051073e-02) (4, -2.36448210933488459085e-02) (5, -8.08111145419271648116e-01) (6, -1.22047396373351735299e+00) (7, 4.70588504355492887044e+00) (8, 2.26222865463419742227e+00) (9, 2.09259819560916371373e+00) (10, 2.15322363140449635210e+00) (11, -6.94603968665747695255e-01) (12, 1.44146268917396014331e+00) (0, 1.01424499725732308875e+00) (1, 3.52571543484131499913e-01) (2, 3.12421601443688079502e-01) (3, 2.91755538611809417393e-01) (4, 2.93864142327706023838e-01) (5, 6.51676929259909432091e+00) (6, -4.53850851074250716266e+00) (7, 9.97222889885158991774e+01) (8, -9.05225873045212514612e-01) (9, -9.09643272165895466763e-01) (10, -9.53820256744266514737e-01) (11, 6.83238146849646277303e+00) (12, 9.25276513398336608596e-01) (0, 1.09234088553509405273e+01) (1, -3.69997647020784969918e-02) (2, -5.80726068828073954675e-02) (3, -5.56673135969606852624e-02) (4, 1.60641830053361231445e-02) (5, -6.65718082330488125642e-01) (6, -8.95947393485734489005e-01) (7, 4.57434594463649180085e+00) (8, 2.13050790311022586465e+00) (9, 2.22098516249329991368e+00) (10, 2.17614083500967137041e+00) (11, -4.61929637165716000524e-01) (12, 1.25015179668992826301e+00) (0, -1.90114987167071397556e-01) (1, -2.54349759232368022310e-01) (2, -1.96479237090911390551e-01) (3, -2.03803515445556138186e-01) (4, -2.01885065447654221682e-01) (5, -4.98666766512130543720e-02) (6, 1.35172310934121431281e+00) (7, -2.35425957015359371693e-01) (8, 5.02346037888932173132e-01) (9, 3.54548905555696014513e-01) (10, 6.41934650467773093574e-01) (11, -4.62525937741284753901e-01) (12, 1.23367128116391763792e-01) (0, -1.24899289090780163392e+00) (1, -2.48078840410279888307e-02) (2, 8.52303815448713780745e-02) (3, -1.83680268561410495187e-02) (4, -3.56648924386071958237e-02) (5, 4.56544533208445235672e-01) (6, 7.96672448709135672118e-01) (7, -2.64657376246698738953e+00) (8, -4.89447349505114037704e-01) (9, -5.39782807423679678038e-01) (10, -5.09943911955944684244e-01) (11, -4.97908769979407486717e-02) (12, -7.04504997547039990557e-01) (0, 8.92020266171619891082e-01) (1, 3.33730984989154544351e-01) (2, 3.44856475058543887613e-01) (3, 3.79375014964091983316e-01) (4, 2.17606436971175820627e-01) (5, 5.30942706044432499723e-01) (6, 2.95873501545008410485e-01) (7, 6.54340363931994684066e-01) (8, 1.38522603316914433291e-01) (9, -3.32120020863164777669e-01) (10, -3.34082697507490034017e-01) (11, -1.34155162445553782780e-01) (12, -1.20373167133413772056e+00) (13, 8.76740214495664083039e-01) (14, 6.39843485580009252445e-01) (15, -4.17774856743516609381e-01) (16, -5.59751099401028406888e-01) (17, -1.83393476428554497160e-01) (18, 1.29028270017302304495e+00) (19, -1.83944644586777145134e-01) (20, 6.40857744030461251583e-01) (21, 4.29599119162232256919e-01) (22, 8.41847817265793607611e-01) (23, 1.61705095929679049105e-01) 
